function [Y,Xf,Af] = DCS_15(X,~,~)
%DCS_15 neural network simulation function.
%
% Auto-generated by MATLAB, 05-May-2019 22:38:55.
% 
% [Y] = DCS_15(X,~,~) takes these arguments:
% 
%   X = 1xTS cell, 1 inputs over TS timesteps
%   Each X{1,ts} = 35xQ matrix, input #1 at timestep ts.
% 
% and returns:
%   Y = 1xTS cell of 1 outputs over TS timesteps.
%   Each Y{1,ts} = 2xQ matrix, output #1 at timestep ts.
% 
% where Q is number of samples (or series) and TS is the number of timesteps.

%#ok<*RPMT0>

% ===== NEURAL NETWORK CONSTANTS =====

% Input 1
x1_step1.xoffset = [0.00120069098611025;0.000156281659952181;0.00236488767656627;0.00408479137007364;0.00172854682036548;0.000692772453801206;0.000154225323335098;2.83566362626678e-05;1.98977292319642e-06;1.64962732715356e-07;2.16594100015891e-09;4.17580790495951e-11;5.20410107169224e-14;1.53934576923816e-16;7.32800886761281e-21;1.4212908184457e-24;7.2704701242177e-31;3.20699077329469e-36;2.81332875646869e-45;6.00234783910807e-53;7.20150431109371e-66;8.55103806117184e-77;3.67303344871515e-95;1.14189339148783e-110;1.03596614563876e-136;1.110265906948e-158;1.49325633891594e-195;1.20704425216603e-226;8.21599881707689e-279;8.39911597930119e-323;0;0;0;0;0];
x1_step1.gain = [0.861413255979987;0.873751811991784;1.17801260377571;1.01765035790009;1.76862455094299;1.44207539535679;2.12894052434875;2.32112451613541;2.51701128162497;2.59461443353934;2.73291984572043;2.74906110722532;2.85318207694202;2.87272793383904;2.89662515341839;2.87866587554762;2.92642608915986;2.9299710633518;2.95828620904839;2.97799100160645;3.01848868941437;3.05934378796256;3.14293622042118;3.22855256613483;3.4060441517628;3.59306460865551;3.99584585693811;4.44055081268169;5.47230056057891;6.72517527872576;10.0780581341537;14.9557313009112;32.0716242303912;66.6315365760715;265.323099633146];
x1_step1.ymin = -1;

% Layer 1
b1 = [-0.29610914220844730682;0.18013696016720481818;-0.039824275617355658907;0.77639016267237903612;-0.26975818276203789026;-0.8074185809814604653;-1.9712908770407504555;0.015001510443072353998;1.3644224532674329442;0.02408938635093365796;-0.94434286107259790555;-0.17445148744960678466;0.21755679626535870397;0.2905606047427010119;-0.69454989336887995588];
IW1_1 = [0.050612396726874273045 -0.049255866114639702824 0.029738305323903591049 0.0042355445788730466603 0.073148145452243198972 -0.032172528670576114318 0.010038202370124081966 -0.031763800825840779463 0.045058908663540057915 -0.41230789637494319466 -0.10417108872757267768 0.053336319638416868072 -0.46842089579627960161 -0.3615076500885198163 0.097241397759827638558 0.42034006568663201397 0.45329770395038915254 0.38830575458661747978 0.20009164250952762854 -0.010724804312830762271 -0.2105967095752833973 -0.24904490882021043663 -0.20197484320944780745 -0.14607011237067032972 -0.045002318856805577363 0.0051816743507244198211 0.0040476246777508950031 -0.026013107393765850378 -0.025156627156464963363 0.019757198208810618223 0.051903183961177302985 -0.010931900868358818482 -0.15985581280418850736 -0.16089132524701607596 0.25461970386007171108;0.089879031695474065344 0.12608176669645326795 0.057626370245362885936 0.052854893439792077769 -0.0091388351535879215615 -0.016576601362162067532 -0.069065784780483585603 0.054755347757674051323 -0.081461114755894195594 -0.038884731613594632205 -0.13138531498354172333 -0.2487198116297666961 -0.2160154293267222414 -0.16334899330803639983 -0.22680031778164783107 -0.16721125654263835347 -0.14223722366223109925 -0.15053741702204356812 -0.15044220782081599297 -0.14608479652605896315 -0.14832465588248702759 -0.1376719807838468479 -0.14282770811442541126 -0.1529188502013156814 -0.17283220885977412795 -0.1774003951750699748 -0.16030102421488889863 -0.1371936028236376004 -0.11386814610735428166 -0.11131139379168465686 -0.11171905667993621558 -0.09859472015983317128 -0.05615896976712710098 -0.027779667686709481889 -0.02610145392755625765;-0.058660913234430914209 -0.08933947993850260838 -0.075711100461373762038 -0.011554030740367336738 -0.033262776038281489932 -0.016721247657801436431 -0.038218178563312880935 0.0046101862773511208607 0.033310930470641139656 0.095134749378509672613 0.10181703352343171587 0.0098923731205118221876 0.14335819954765696704 0.23496489297531308882 0.18601437455879102356 0.25823814737994166268 0.30780699914808840045 0.31327129551331023283 0.31240012374749837054 0.30263338161416325489 0.26662536570380740431 0.2455092994081455593 0.19887984759681501257 0.1721092030359682723 0.14844836628922059019 0.14842281093958806237 0.16591301070287037267 0.17581074031508855948 0.16716537152588295534 0.14022886318404875761 0.10033281219958206654 0.089944902815754193548 0.10990398465844319897 0.13231358186814795586 0.13966964380182550487;0.18341110362864454508 -0.12512506545854409912 0.07320696094049926328 0.082852273514652866049 0.3240838281804863108 0.29613295073994477802 -0.028514101925673315807 -0.13635983721369834831 -0.62492904012702110705 0.26006284002032792335 -0.28774361231498024605 0.13338504915460147604 0.52231892147904734891 1.1615378527670336961 1.5407249530677260552 0.95533354570913109338 0.19759626239702685058 -0.14990596828804919616 -0.36376654036152727967 -0.4002749236129288235 -0.39177238869646396902 -0.36463144129433056051 -0.30257201707041692096 -0.24372774370014663181 -0.15178372184980945536 -0.090054686221347657327 -0.030852405557975085687 -0.017711704728558451405 -0.037691046722596585616 -0.070194735811868386177 -0.1151669586963003783 -0.14241402362246591284 -0.18216768578193290318 -0.22715520784332282611 -0.33020409593554189698;-0.37241980790441775451 0.18841379365811450342 -0.15487132432658493042 -0.3087539685767551334 -0.76807654353316412443 0.11088830857736649282 -0.25873660080103033643 0.41701950439115315072 -0.25215662471434252545 -1.2938139632627796427 0.28465326353337366827 0.77046115499527412229 0.61610832161893602787 0.61195813223756823085 0.63962101593621389917 0.53876407902838374664 0.35663956890233078356 0.23143103847835169717 0.099702462562245769417 0.026297067673798680404 -0.046505934276595627119 -0.078351180058037692144 -0.089465987691068102339 -0.082407646979023321809 -0.063546035328487543437 -0.05317453699330245559 -0.054173965184926002603 -0.069466656287709357964 -0.10562886645700383936 -0.13766350708440200368 -0.18129734430545396684 -0.20563205588781063859 -0.23258378741016169644 -0.25009957899639967405 -0.27190194982779186672;0.31053864438751938026 -0.11645557421077856741 0.10299370548573751061 0.27926892756200810686 0.65993770223290137977 0.1603197324321012085 0.13554661815839202932 -0.31388392225170469452 -0.36762503762183779132 -2.0184145381055875745 0.63531942128963814209 1.355547034135775597 0.3936401609366917409 -0.095238395473033365946 -0.4172657395286379356 -0.47163092624566627098 -0.45908973005011138868 -0.39466492240633838096 -0.25262457240522995239 -0.18339457759670518833 -0.10930444611154646606 -0.079862981280864234201 -0.045597436574265667875 -0.022958681203809030297 0.008916747887373895759 0.029392928529055537684 0.05300748156148449991 0.067396585022774679885 0.079025361776216856979 0.081649820128732286673 0.076981291424081971231 0.074972772178919885877 0.083829306722953383924 0.10897768442186830939 0.18046551205992375499;-0.022325175711774759846 0.10769529255230302078 -0.040302057146121159081 0.12455557213630788493 0.048848625271667729664 0.074659648231557643183 0.08410313952425413353 -0.15032966557673654862 -0.37177028984959814562 -4.4559215539618000079 -3.0065999142083166262 -1.3623146917039956616 -0.094387858612775779599 0.2271910815590588717 0.38001184760123973838 0.45157523904577906437 0.46597866050960806694 0.45805758487116715605 0.41453585866711029073 0.39070133887942387618 0.33936351447208473742 0.30510855110078022312 0.26625164906948245447 0.24542856093715079147 0.23068584087040971964 0.22736714613341288405 0.23708114923981105093 0.25075601593291152458 0.2771626001673856976 0.29689931605068842213 0.31811920278959898711 0.32394395796908920238 0.31549324092439745559 0.29174069668045649051 0.2334204738622929487;-0.18830563397627766986 -0.32340540704796855165 0.12558421636462480109 -0.024187598419932097166 -0.3037793715198031097 0.11043650159018036927 0.49486970449186917786 -0.53951099617284214993 -0.10807897305362793028 -0.15993447556740811311 -0.31463296216040459452 -0.31502680149279854716 -0.19145059158980334835 -0.14863745993406676793 -0.10708653588431212011 -0.01314004980306740164 0.1144086438448873172 0.13866705340865592699 0.15318222655393753939 0.15395267842912860323 0.142973886539816325 0.13379306214829830846 0.11372203008254719303 0.10012312343082220567 0.08323985690259405601 0.075444223380491448605 0.072920202822139595922 0.075745842714444525101 0.079409632381765224429 0.080809499206570004071 0.083528909339284557189 0.09307834342033073638 0.11710523814078249716 0.13023084956724645389 0.1212733894218441244;-0.15167926770802869774 0.16774770550530648805 -0.072126506729803391282 -0.058206799860161369253 -0.28721351612793399877 -0.14385612281089124598 -0.050949712405612954114 0.068869627457155940808 0.22487350224008709199 0.45278327148598301877 0.88259778995840154625 1.9832415244346655037 0.50437946657480625667 -0.28876214079612483321 -0.28377729742394020018 0.0031945978046183836144 0.27943142680162097458 0.25732107560428041371 0.075316587030640494427 -0.048702273121235158115 -0.16534144860881549999 -0.19620628482284080407 -0.18955750434020568473 -0.16893187541586512923 -0.14005149895297275275 -0.12714762361505393962 -0.11960486525721333861 -0.11794750069417903049 -0.11325385685981549655 -0.10408853650631445797 -0.087447696832700233527 -0.085968085231986873795 -0.12259101455117933643 -0.19158211075031739146 -0.36115762612542057219;-0.17765159837453114999 0.23048676495117262353 -0.14358045650774142743 0.090798764557480260429 -0.19335250533155223795 0.29553904480076642614 0.057769922163693629424 0.035390910563150239365 -0.42393531257326477757 1.4859669319071406868 0.26335589384325880369 -0.12417329030989641969 -0.12026795771139775493 -0.34350791172590833256 -0.77129124488568878704 -0.64216876428277269717 -0.40268853705951890287 -0.17792602633008897106 0.07404653879651922066 0.16747315795948289341 0.193443246009781189 0.15416385219888101288 0.10790446291592259431 0.075306279261019251625 0.042035662190410397199 0.022462754128100913265 -0.019221462788098143959 -0.053536452826780892011 -0.07090192744163544003 -0.047672564496741169637 0.0050993592047191491079 0.025498733054409618293 0.018255154745510863978 0.022995643625932669918 0.12875920304899943214;0.22028721825489569475 -0.12619825783574195599 0.079554418678087421291 0.17076594671925376945 0.44877908627296886346 0.32980014504948285126 0.050915617778330167498 -0.22660466570745371739 -0.63688511076082499063 -0.27182836050900077707 -0.24114310953582002162 -0.9705228238753746961 -1.9061447402081876934 -1.4849328480339962777 -0.75631897700198980061 -0.29853513772451695241 0.056062033127763588602 0.17560315109432192426 0.20134582206704071394 0.21491854679326222177 0.22817501359344938283 0.24579183476786334306 0.27644785855288855903 0.29816172892187303711 0.32807480934692956343 0.34607572358681482072 0.36745882900660392645 0.37810460497499620569 0.38605728701835151373 0.38311393306741536868 0.36702578686014841747 0.34216492876888621177 0.2817025012677734086 0.21890021178950982983 0.09398556386772603799;-0.20639977436720990944 -0.11409593105663191903 -0.15257384821043482037 -0.0043130898471191152915 -0.20958419032638581081 -0.020817137287169860255 -0.0069950949094146758211 0.059690153486999630861 0.12976169622984232155 0.19713246076759521896 0.26593790492015656479 0.33738530862267218646 0.34453607107432515644 0.33984552218113822653 0.35446542976471251407 0.34659267136743970861 0.34552725238996373491 0.34469594134052183865 0.34328292360802387106 0.33663915365509666788 0.32954361506751389532 0.32075199850540803137 0.30866308636075634464 0.29431946316811030684 0.26878826346205553222 0.24438648467188400781 0.20898391300151777927 0.18911660487505893569 0.17702909221524790184 0.17846592952850090508 0.18702274441963598339 0.19181718397055078085 0.1909693549930071288 0.18660137535378951146 0.18170663809017190138;0.031222765444901996734 -0.030394813951088318904 0.027741584807032371174 -0.023605064475014991138 0.011574821684738948596 -0.068528798113163619243 -0.040219036145359030043 0.0091827230263417710526 0.080127996247865540536 -0.19792123616867526859 -0.080865810496852416622 -0.068461358175734482456 0.22453762490481657399 0.2729325216927429576 -0.16647732064998987944 -0.36504989745681731828 -0.51849088511792806866 -0.2888125342818214647 0.10836675704082171512 0.26339213380820586385 0.26294851334265656462 0.11253324522745823677 -0.0317946296464921771 -0.06930432746128728505 -0.016612920262998993881 0.052853096177299101199 0.072805810138133170151 0.019365163434203247483 -0.044786507468798891773 -0.02939994049306078952 0.048430518408729181234 0.068877546273033246615 -0.0030622667703155289319 -0.062957317969117868039 0.011926034519416223861;0.6881654236195240415 -0.049908443949179218113 0.057299211136901867514 0.82894854011879315347 1.6413197639006291695 1.4248851748073734225 0.54498123254381025671 0.24697236415796094966 0.25548116221172395557 -0.75022104924600396814 -0.39027914892339676811 -0.37875901087600455375 -0.24949801557312173417 -0.22746364903727200879 -0.20339861864022054649 -0.21457498122717028055 -0.27760961047233728705 -0.32865393111806551207 -0.39969964592207796183 -0.43042366417420691027 -0.43499355993721261493 -0.41112629479136736377 -0.35019591707648656254 -0.29699668861117434204 -0.22639294873971935185 -0.18522734068592219825 -0.14161271500737510065 -0.11777571598717312407 -0.085609373380611378246 -0.059686061265099413231 -0.01761319404126730076 0.015087605636564149075 0.056697535022850201192 0.079616341008797802958 0.098907868957424510681;0.33089357655420725823 -0.30766222019949102107 0.14686129858355453925 0.039944850550583138604 0.5273674425127037324 0.33182851176361549683 -0.044168724005777121322 -0.044599119660047342739 -0.59038809505231926167 -0.24244064836275239228 -0.60336503576200217758 0.54535619892332098946 0.30028440138228312817 -0.73467465547776500401 -1.4392796564661629599 -1.0958087529213020872 -0.54032356516835877702 -0.26823387697429817988 -0.079305116756148708035 -0.0088407353494246894432 0.061042618441094202708 0.10079742593984072907 0.14997146174396444596 0.17690064155074777807 0.20864375223269732151 0.22505497072097818689 0.24141097801756980501 0.24936753688025167786 0.25389517827884877654 0.25281112516073372953 0.24554880291377176316 0.23610720489392145183 0.2208303324991023886 0.20670174072384148167 0.1874501650440930367];

% Layer 2
b2 = [-0.15248261834364346123;-0.12941295083789094988;-0.14548929064536492151;0.13839435798275520617;0.31277901251516215808;0.11449724174973159585;-0.23182493281195304391;0.39247884092448287463;0.2367388604016198439;-0.3338916617361635808;0.17761907971972326625;-0.0044167016621624007391;0.27404271942265845396;-0.16839039466715008397;0.10754131466206204304];
LW2_1 = [-0.05845753023098632789 0.48134062207642619446 0.41263207716312128026 -0.59694092874235726853 -0.64018151054182748094 0.5145850012379938887 -2.4572983736866542692 -0.24054548153674823463 -0.18505964736823837802 0.55912860294632282798 0.2153501706723031095 -0.3098416604366511784 0.52821620042059047595 0.20595295809591307457 0.11643161446796249092;-0.41423602988424573779 0.23373596272172603161 0.33466734052451618808 0.68787917669589637715 -0.34506461912269287273 0.60048380273521950734 -0.11751947420136632516 -0.27821254181419668994 0.64678255028939835025 0.83190362607255186056 0.97162984607796887282 -0.18666656351469471109 -0.50004882510959891562 0.25220447650680166696 0.45217979743781649971;0.27223749299265476154 -0.47067664089573224562 -0.3060479899503800727 -0.21913739309396929045 0.48608644222202890273 -1.2637039260872717783 2.9658476197342831249 -0.082557017652402475694 -0.94409237701877912752 -1.6969503046657785639 0.038480789192106797103 0.072899358684872211933 0.0010136056316404516361 -0.55729133025518839961 0.2435547983133600769;-0.21318150059234453053 0.66110422455532436015 0.6819571246835783862 0.19419615746593460459 -0.31768118292471891895 -0.82142891002974394166 -2.0234487624054069421 -0.32153205297699888332 0.24774940350002006006 0.17195688095212233182 0.82464573826845211091 -0.45174653607878173522 0.19105410628333496792 -0.10293444154396121093 -0.89446864895840849652;0.62509454147379239775 0.03441252640024678594 -0.26089911345836647172 0.62804376638616143946 0.28002477096904365705 -0.016053186808764319943 -0.27864978963493164388 0.14353614564808403475 -0.37163570001952866972 -0.1409132616636562807 -0.18285283169430480155 0.029347808945311502221 -0.53576897978978321735 -0.50496048843366991843 -0.38306222147219132212;0.88234299963120776944 -0.46467001663656548605 -0.58588400081567915123 0.89489756055942948354 0.059190500599676183768 -0.091204644306250429175 1.188472327959168906 -0.2298653682232469353 -0.83284656394273703928 -0.19014509083922939703 -1.3528081193289271944 0.25154070910319109577 -0.30580380434820558788 -0.036249091942625509544 -0.22379719295795266754;-0.26895980848824296849 0.3092696838782759694 0.40735851235696385331 -0.037588112005657502157 -0.35998995571654335279 -0.059748143631460248759 -0.75946813279447356049 -0.026956646603805461265 0.16335730414337792937 1.0563724425652827321 -0.10094309507317245078 -0.14037807451316280938 0.28481991212792728829 -0.32358305936991110796 -0.83830888295359062834;-0.21007840639107555614 0.58254210323175648067 0.46343350872254435169 0.96396505839333868071 -1.2303367290995412819 -0.67551344638790544739 -2.1394540992971702309 0.30578912403635161166 0.044052113338253609531 1.2157664551420233057 1.2221109958276688001 -0.41710166343482935059 0.19129120435061752747 -0.058017612980460930849 -1.2250043168060917864;-0.22653163779306700887 0.12255007377198909313 0.29328749825892191927 2.5239055573839883628 -0.015903874203720594349 0.84585151798479163432 -1.0612556588677297675 0.15542754186551369089 -0.0012846817642488451722 0.24406016350437048645 -1.6815426188694844178 -0.023373028790938832344 -0.12535417993202846443 -0.33881261300485221444 -0.51288533657062640447;0.28908375033287353473 -0.48828575759283066038 -0.54790949961925072831 -0.87212850660425589311 0.29277190354161791719 0.075117352888346866635 2.4229809963717769961 0.15217738929276702908 -0.87353357821605215339 -1.1286547607616341793 0.40941375329617063494 0.29573443484002920334 0.20816785629474623964 0.34165837359460154987 1.0870077812682497065;-0.19708545304093577633 0.3386406491668526586 0.2889680944542701857 0.51617917279898573035 -1.1544864443888191996 -1.5105042851449075325 -1.8902825915133636414 -0.36045024740797149132 -0.48283008145918476783 0.25151665816718565827 1.2721216326346986847 -0.23739607650703281605 0.27675317359209233858 0.49674693837408379071 -0.69019292042559465816;-0.034112654252755426898 0.17714059142041235773 0.33448010881170214814 -0.28586615258376868454 -0.32801129771599302209 0.29133422764853439402 -0.64453000536488569416 0.15748965910607781726 0.17640470115050999045 0.6279956108115919422 0.18676941111333392187 -0.13301977923350297162 0.60184854826234979175 0.0033779412951259043738 0.085551594387128129804;0.26490522340742400642 -0.46866990540888980865 -0.45865917846699988392 -0.22573234046598589231 0.47798366969285804862 -0.24516310308940914009 0.21547635354598368429 0.066460367668487424497 -0.25169955992781062326 -0.30680563954556233641 -0.069483022798179083779 0.15904965002169157984 0.79639558942228305671 -0.075682416358519466471 0.23582812926172827539;0.62258815550195090172 0.007079200043509634166 0.012093085542729782936 0.3074869667599194889 -0.603454317902888282 0.075390160232273031871 1.02669206533316415 -0.58623473492198507895 -1.173661325698698743 1.0707375790000854821 -0.16219175417781989124 0.036005517520342651683 -0.048326539904582167806 -0.052187116575041721245 -0.20813412136037950928;-0.52608446899594651924 -0.34781236948299398826 -0.36245828483915026874 0.61552112204301034915 0.21528582390478870345 0.027811441276540387058 0.88364731555102948857 0.0023668891224554820113 0.30204354935951099881 -0.19942325266196894717 -0.36081008190620583731 0.12002337433674774292 0.27988897531349754555 -0.39445478429258556963 -0.37851191904181080705];

% Layer 3
b3 = [-0.23014058386217206564;-0.11670737691094038024;0.071884358996129618657;-0.054817286556013554433;0.22584815662571630646;-0.19152728069518490384;0.32356783578583153682;-0.64710687030803215603;0.015323109978794637043;0.010548602929201251338;0.20420465824318723147;0.25367522112996676587;0.31441479897917889996;-0.20400286680254509086;0.22299586856201100704];
LW3_2 = [0.1392599649151187724 -0.14165994907145393333 0.004063183730104984008 0.33550651122510549706 0.1302863045675999587 0.10786570218079101491 -0.21846392347565629644 0.20451574090048821319 0.089488260812473005568 -0.12852212184746222845 0.50487370332133618689 -0.1342028212575342716 0.018543270592561195143 -0.57960198749139957286 -0.041519316653232545;-0.15162421082054866606 -0.080722954124667567477 0.44772518295405611122 -0.18996667688472121394 0.0017435307644018938587 0.20941219910716496466 -0.1784406564155638919 -0.48728685487106759844 -0.43423685214627527618 0.70776123379933908453 0.036421707902368233301 0.19485547628769661621 0.19549055935857370669 0.041905483640243976207 -0.12951313036515288424;-0.013571091808311619431 -0.14972608200338771711 0.12933523991064307945 -0.36801095770145081376 0.037368031933152481838 -0.13799948334650172233 -0.11516561857872230357 -0.096295044294733844747 0.47776861851477786525 0.092710727308902854404 -0.18178701875012412414 -0.19886836272606633891 -0.21871808606206985526 -0.59082067631458534684 0.22821920201410272888;0.30790040123496670299 -0.023709887701270481591 -0.28086627173214573361 0.30148084965050980788 0.16913236709502585398 -0.094319520145936461275 0.079617598408923517805 0.15855477582205085296 0.36159203623059177346 -0.42384580692951612235 0.24202588406773600793 -0.10830500997388196882 -0.14415917597824545737 -0.44396333409757976485 -0.10931784360051022276;-0.0064904443701982242332 0.065520006070596159553 0.013927687203539401706 0.01695681024141579285 -0.50343344121497790589 -0.11935711557117315018 -0.15735832341112804267 0.0018750322712435588644 -0.18681613930340740248 0.017567231156364535027 -0.011284482591785233857 -0.17002694583238608939 -0.13814187955215090353 -0.31617287209379291157 0.22742995601783511095;0.25041522345293154572 -0.18334538820567605755 0.072442357032517987192 -0.41879360187186448483 -0.39335492429447566076 0.52367873388595220785 -0.15783752857861294006 -0.41078569869457415287 -0.42055208142750316602 0.59840972937412728605 -0.21298638310943401875 -0.057453498357545776387 0.031880381548091474286 1.2773821488126884116 -0.54605266800878538014;-0.50579475430963316551 0.73545541259472391182 0.47756114246513653443 -0.030956787122887931968 -0.44786549886150911481 -0.33042848154772075375 -0.22161332215318624295 0.38207951882911761476 -0.35016086621538289325 0.26262554886411654254 0.1557414071123704169 -0.4062384060201742475 -0.34992748943583745769 0.38263884033134337725 0.3227569890638405381;0.33853803280256816732 -0.35319874147048813118 -0.16398114593964105423 -0.26202147830388639038 0.46875717709940273314 0.50948584029414134555 0.15039744010635600069 -0.53459654181806492979 0.74580069816545857542 -0.041374446447924942416 -0.6128636821418563807 0.52902928319424802339 0.65682829260325314991 0.97852455126527915219 -0.40609539185014015272;0.57427111073653602791 0.32310724849670319214 -0.69622879680206195552 0.40783979730794500673 0.0057622346268840808625 -0.23109756148518725838 0.24941324654013408146 0.4311502477383348797 0.39631540478620996826 -0.68585213660611821229 0.26785054015968251528 0.17908200831419165966 -0.32237525013815671038 -0.28765346432308847024 -0.27221847047939146114;-0.25397919373564337153 0.056479770206925780651 0.66123442934716214481 -0.74638581962578331996 -0.023435900866168018347 0.031626606956648303792 -0.50565157737223787038 -0.74258399226732285658 -0.29342740165450326151 1.2903253988936305152 -0.42935095503872189315 -0.17298606681877579105 0.36869352382059655815 0.50642165485649726087 -0.088279287798493782935;-0.39835543223232311449 -0.32220273396409138122 0.25820894141720091008 0.60872555841672737476 -0.33865721572284057661 -0.24444975247978870114 0.038487576900470575614 0.78156980314522839226 -0.80899371450075641121 -0.33431475236666080564 0.87009888983957406339 -0.17802805329952225977 0.14619446544240874419 -0.095885600469597528916 0.73107514418631613928;-0.85987414508890280818 0.51764990387397880056 1.9150844762011665079 0.7431717940568024483 -0.999969297103768473 -1.9240396552933025642 -0.34043462372338145761 0.53832660810845223143 -2.789208179927371134 0.77356481608738281164 1.4479222730720331391 0.69907008941255532886 0.82517898955141577577 -0.15716326652527742858 0.043267754968567634366;-0.046164587140376155128 0.6472028577483477374 0.15505883409745821466 0.70366420703497456479 -0.012984456342639724008 -0.23462730335512743673 0.14887390329637151254 1.1783416826836248248 -0.098930368358191439482 -0.23577320579351010443 1.0483514727871616756 0.052179920516923182505 -0.34285859788929218261 -0.34408204880436643602 0.18049116077211058151;1.5171396490346640284 0.7642016159755434801 -1.246135372856858714 1.6898234682917478988 -0.16846501418377801684 -0.78093421486043723689 0.62205613286793381977 1.9519505449304739297 0.63351745400722980772 -1.5672607480171047989 1.9593427391309568009 0.46420556205881463585 -0.67721291702042185623 -0.9654739937337385447 -0.97233027003548988532;-0.88708532907686077351 0.054068668546759596216 1.0101729522194944355 -1.155317450929546963 -0.37218788271670022461 0.62510376696701652754 -0.37173157238871401553 -1.4946748297646028636 -0.66503134721074663727 1.3698038009449591268 -1.2310399775451310589 -0.223920080103297503 0.48558545625531124301 1.0198825602192151951 0.58295054250380007321];

% Layer 4
b4 = [-0.046100675821374649532;-0.21722471954453179133;-0.15207926145992814448;0.1811864810679504334;-0.12885685134702634658;0.031234104369274175855;-0.61887290096748792667;0.067459124711842108346;-0.052112086244479875752;-0.0060052321062687456441;-0.11689762395128465433;0.18821524829918495625;0.033107994972495495556;0.048212214953334366074;0.18159642097048306342];
LW4_3 = [-0.024845008248556069846 0.37868963510925940374 -0.20187788432826944685 -0.38638167640429765815 0.09565288917713210548 -0.27345608661586440213 0.68855214446188128807 -0.32787688552024329969 -0.6151823436578248705 0.62166552481149606191 0.67026251593890939784 2.2196348905499618809 -0.019073106708757354283 -1.9079742313928795827 0.75883762653281305877;0.019498424702832722888 0.37946441143610171176 -0.36478269423447273745 -0.042558855184489638446 -0.58602100873939921843 -0.085738788911941657411 -0.32514421804845300423 0.95363150252558037678 0.024972551344245842719 0.049107781869410525866 -0.56499659346660691117 -1.3813727868472933658 -0.66498426312355041201 -0.14795966727075093861 0.23406122095852691101;-0.16700847780153824096 0.29550244113561441317 -0.079310372795937791879 -0.27174750485232840314 -0.011067404260387164391 0.69443577240818565866 0.20102072833565351462 0.26346420907712519988 -0.572217517609839188 0.72540255935893205308 -0.091891556514344427398 0.27323667876313689762 -0.5141397727166823195 -1.6156520890480534636 1.2888485718918509804;0.17792561830175282478 -0.07672556139122846397 -0.32467388429624505219 0.00046523426626514878925 0.082423404162963218034 -0.66408614958491618552 0.68312318368261493173 -0.74080662999603874574 0.19332159837036835826 -0.66337098739099453759 0.62500852456077748975 2.0740114582708955027 0.85870492090649452877 1.553426421703737681 -1.4459984902133120599;0.14015596852056769195 0.098519749319036536983 -0.095445270369135637445 0.041175886972173961209 -0.29780529568501007409 -0.12241518055764469275 -0.46982731828643559124 0.72206995220424596837 -0.047390079704278477435 0.1005515752835984683 -0.38506025587667386256 -0.92783162036308775011 -0.53909909130455369031 -0.70514572182548440615 0.41687624786406485278;0.31257973603166405718 0.31771500367273902699 -0.42287817945680572507 -0.062123492121541230848 -0.088091728410458230991 0.38809949303965268763 -0.36022504076311229193 0.44093792095129835662 -0.049778361594154586778 0.011958459587859515683 -0.023943183446557905064 -0.13834104858238027713 -0.27730825253414831399 0.47878589006990829313 -0.10231759366504765418;-0.5339771028175657186 0.23771972595282073182 -0.031800344160531034132 -0.33424100342764323512 -0.31570081098133478958 1.1069962511462201338 -0.45069363435757953118 1.1519723223778077781 -0.12532697202037673678 0.27192312858240469398 -1.2598959450459514819 -2.4326021798105537108 -1.2619282897013126554 -0.25822556018017489565 -0.17582140052557626575;-0.0019822872626797782142 -0.29909503659931568897 -0.03530289885042334902 -0.013073863724785661847 0.077642077667233105887 0.0085632752386213244894 -0.076729489352352603371 -0.10943351614296639718 -0.25679135590830015623 0.10868918894213300264 0.28753998422128224099 0.34110926291615972783 0.072532959022451506947 -0.48681848095407681543 0.31950013246128916578;-0.13642586845594814604 0.33529651031420110163 -0.016907769405818281333 -0.23509694272119247005 0.037577064733037436606 0.18839417423305424015 0.17594864704697643631 0.10060091266133830423 -0.42418958881474655431 0.64095284813770114773 -0.064615524104578991871 0.10838599680829075211 -0.32285594572035913874 -1.2560245819956636915 0.77867512090065771346;-0.090891109217999449532 0.10019574992837401717 -0.023711397814539368623 -0.18878789530041351075 0.020996138238291852524 -0.0091034028617923683918 0.30088026215545216058 -0.061483645800390597513 -0.42631440849935070547 0.47101575727715366826 0.2135128476013909149 0.7944192600130914883 -0.082411546271342089875 -1.2660124747586007921 0.74104841045989378046;0.26694604995459486618 -0.0081024084504630715375 0.35859907527737022725 0.27245953730764538303 -0.095908553578575542198 -0.13026685216839745118 -0.13706568533242202701 -0.04954294396056724975 0.31839102723108220205 -0.14859198951353169704 -0.20229865522500795061 -0.55102332559099442832 0.091508957605934290735 0.30830581926136468862 -0.47999183908421738654;0.26437876612294325396 -0.58461528806988027895 0.14375060345138873652 0.50943970591917153712 -0.00013663091175292500171 -1.0943899704860402533 -0.19209016196126060816 -0.37912462678364927671 0.82242185481257112922 -1.0758437257146356014 0.29660267638392251444 -0.52787672429039333988 0.85710260312339314748 2.173589653403763311 -1.8515476501745804505;-0.03651307282526012471 0.16164542299165063355 -0.15685499610488004563 -0.12553947749673124989 0.10347514702383922569 -0.39414310000127650291 0.0156787180163297582 -0.017273923910969692097 0.13208382571923010795 -0.24958841406414769559 0.071098468921078419869 0.025720291612435556422 0.018410792204561602509 0.16370401728643996231 -0.34639433856027612713;-0.092632242759038363467 0.14263387907668023669 -0.020704401802811064903 -0.22879402231763498743 0.033116432759063743618 0.018195573346044061069 0.41757882670875984266 -0.17812688962421435734 -0.48957847110994312523 0.53386977349432807038 0.26033534980379507973 1.0357167842173993222 0.0073264410625777090166 -1.1605646301848462354 0.70586451703870045638;-0.43692214930925793448 0.065456370081522691207 -0.74020177510202023186 -0.20292128143388854511 0.027041746904356747661 -0.57367581523682253941 0.52776309231266094191 -0.34105720420398039083 -0.31103844831323290698 0.54413270987369843912 -0.02882869745719950777 1.7752085785858204847 0.19270633769308864736 -0.018151823061625972644 0.31675499126495210156];

% Layer 5
b5 = [-0.12650441837549078472;-0.14237756243375690457;0.17252072918984201477;-0.14686569612283773001;0.13621675659744131304;-0.027533799279766662388;-0.28837977655482055495;-0.23829491210363337728;0.43213451559488602616;0.22923743532937704281;0.066811480204636883307;0.026255559163552426305;0.29946941859413972464;-0.04620486630495945074;-0.1150019765975037328];
LW5_4 = [-0.20602924442005085548 -0.10456098579040819241 0.032916222859177723947 -0.44406388465034574153 -0.15331450844037988746 -0.18913350423278715851 0.24224699703314500621 -0.0053874458313309635249 0.16167971756679835882 -0.040726438866033193298 0.1962890982733844214 -0.027623346016030225769 -0.027449467684643465148 -0.073849994959561141017 -0.33842742227237626595;-0.24618508983878753527 -0.20935384998088601982 0.029427716627699978397 -0.52089754950112776566 -0.25140098631755697367 -0.39177171537565530501 0.26720710938525848999 -0.016618900571815056061 0.26988556835619548213 -0.060989029540848171962 0.31556650032809208106 -0.057816592275450225114 0.0098188144528958635343 -0.097460709555653182723 -0.44531520346913966435;0.96256618950480232755 -0.62564639731146731716 0.13657870257162857408 0.97232140760565322068 -0.31257427569531387457 -0.072034984735869930783 -1.6224603674644912932 0.35975414263683347382 0.31389794685440153277 0.50180188500644140603 -0.32807169768034905033 0.015099941151636982889 0.049761632173686377867 0.62492898050380329966 0.78300595341233336644;-0.02613859233034758825 0.10114604514527013313 0.086167221820663900123 -0.40611910481458851629 0.12926381906827552615 -0.08894089679461271436 0.18858687798631057486 0.038083677501000286203 0.11697234406571227483 0.096034273391964228295 0.029487244341695771632 -0.064089068677275443098 -0.0768382978855607357 0.062970100320663829896 -0.12244130250643661673;0.22425357245830429553 0.12960573835219110772 -0.071772929948914640508 0.51298384300342947384 0.17143359853178921637 0.16993251784837606899 -0.2754526492765406176 -0.00015563194462198294424 -0.18998543122211652978 0.03275325605319451272 -0.18940073482264527249 0.07984854621872122804 0.036286275488182834215 0.066652199915513909989 0.35576509179504989255;-0.56923228437252482159 0.39484127571089533415 -0.10807566917176965327 -0.79576678854143367836 0.21148966276307484824 -0.13767448949180172146 0.78140232276586918392 -0.16732801126109220213 -0.12511658908572881321 -0.17623443773005831314 0.14095476128839701246 0.082307109709850348467 -0.057094649130071895016 -0.27955319181808502282 -0.46786689651976243187;0.55748009257590247501 0.49764423597054746606 1.0533201741212956382 -1.3838209721485001946 0.5854506905546359441 -0.096139409227527353186 0.55493748282571342401 0.11995345580261079776 0.52823680324209620895 0.60618947767195663356 -0.22272000619365223129 -1.4183831528348345152 -0.17196868315653232595 0.52441823647658591945 -0.19742406555958597059;-1.8592494183163321697 -0.1439083177802855662 -1.9424930737016588012 1.4181852232479650322 -0.40430370379092311905 -0.13982347349362719835 -0.48350779850168806862 -0.24159178906169240242 -1.4362153940655890683 -1.3393583826690500516 0.50685463011717457604 2.6758893622409480884 0.37905626805365238985 -1.3903383286482255965 -0.54266033751285569497;0.18181235850125931908 -0.1897061982856544371 -0.36389170965594180851 0.37838043888917860524 0.044655537181440524419 -0.10255148160253009515 -0.84722646099678367015 0.16967070101260889325 -0.16742817511508689687 -0.1115134162671775897 0.11845756573926063959 0.85072135305651253034 0.30768522041510826259 -0.14101395553344170386 -0.25717892766204936139;-0.15489956314270578175 -0.60409048962411204808 -0.61504605575358672898 1.5532206883924697394 -0.49064256016550206185 0.21776664395303121924 -0.59862865906251339077 -0.13980080818381188101 -0.38717774107593305732 -0.45702776465834038522 0.14124802960171745081 0.92126963490468016804 0.17128586655688143869 -0.34610491446788144154 0.31807433457900136098;-0.80964540921479710711 0.45760339538704902784 -0.75364793564369159107 -0.27035385980286280594 0.38587200599318582928 -0.11783259843111636156 0.27786657919584434318 -0.11984721501519486619 -0.46490374732157985216 -0.38636490481177687695 0.44981530534187519343 1.3893355639299167503 0.086045054581167387808 -0.5144346395661290039 -0.57565410753667245469;-1.4484853833583239968 0.20998377492533368271 -0.62581622414968041124 -0.0035588487303642923551 -0.068184409326876249668 0.46214432815084977024 0.80910466568927597031 -0.34496108407507142246 -0.40207265286267063198 -0.84660113052635632691 0.29311662608864152979 0.77559309298156231538 -0.070724453124327679721 -0.86968443758927449494 -0.54137016524532843853;0.10434628217679167705 0.23065810155448132623 0.26038733969524208156 0.24162567452761835041 0.23324005358093008455 0.52215439562617804725 0.13844708502456917754 -0.15144617846371180581 -0.46657805532422652606 0.010329730207863478675 -0.21664908719663453218 -0.38910385281478387931 0.3463928104402760888 0.044634975338623761321 0.17391659218391508634;-0.19488372478049420522 0.27232898145381373434 0.12103326753253831893 -0.50506554614589016516 0.217084545975288562 0.16190242121483663928 0.52971124100953381753 -0.067421075533042509886 0.072646705563393754179 0.061364079955005222666 -0.059832649374251263563 -0.11238277774223764949 -0.10691299692775754759 0.020592781886350192133 -0.13476959127258369975;-1.863019660189233706 1.4298625595085610041 -0.020852531921309074708 -1.6123206703753596436 0.9318137918053620572 0.3232748403998624287 2.2406732999254872496 -0.49832519744940967366 -0.11301126864380355019 -0.56833734463284635297 0.52168054756830306573 0.2899295262323108302 0.28559420380052230604 -0.77467301330673399296 -1.8016479792023125661];

% Layer 6
b6 = [-0.29783502871448902516;-0.0023758597129501916358;-0.1641992098369125519;-0.022147876057050194798;0.015366786118285789484;-0.17825312925267694508;0.26069098553872027679;-0.068800769268348202501;0.68230211280273367347;-0.30323415624677652058;-0.33281235901672956423;-0.22627369279673867353;-0.21694081946587148724;-0.081457923528619358144;0.50190290142866689216];
LW6_5 = [0.018755073314748755414 -0.012711696871322035116 0.10763024590589470586 0.035766422370529342423 -0.038624756445620536671 -0.11971504026542011123 0.27164526368092467568 -0.10930780342528759186 -0.48210948099342088025 -0.19616725747201693708 -0.36961353572428523595 0.1682227864146184082 0.11682356870017471251 0.12222571436115940713 0.38413868240076165517;-0.034975700548211752228 -0.082615645379393490288 0.43979819443454398753 0.052829990870664568503 0.024998382138841059724 -0.095780588701261548668 -0.019882986058623229597 0.13729876333735632765 -0.078321886730922885 0.087422296244975647439 -0.12714548729037636332 0.01814012840737937865 0.18159630507998159032 0.1360920743932594601 0.092806487642313695297;0.019212958332996504102 -0.014501445176641912863 0.16804318543547841491 0.029067930511698619744 -0.034029138353488759539 -0.1167464084808814001 0.1410346071296300352 0.10978277593285890035 -0.21611681877913763161 -0.14831231442669118303 -0.11524126448443840209 0.12380818336789242706 0.11176187631495276831 0.10365840427312050798 0.28025983613224553226;0.1274299306455370373 0.10536691576794929293 0.30457899405819754968 0.19518376883495910934 -0.11947463739729768939 0.10236699433586311792 0.4032770670873804808 -0.56145948335442286137 0.021053267792409052078 -0.39531238072695595864 0.25216085941118993041 -0.52666219732653563046 -0.10529947596720419523 0.16518221023112508727 0.39434411534746116601;-0.073904384409372289588 -0.091135455244154492394 1.238529016661208626 0.019945260778219058018 0.03951637167479751106 -0.50226482653417636737 1.2870161969649982492 -3.1132041511733823391 -0.37622057362551120097 -0.69087364385149863111 -0.99503651947642146602 -1.5104841785731613069 0.15787442245467056545 -0.050790410534950834742 -1.3587449941154037258;0.2897329517812656241 0.47080825872753911954 -0.94495298165551644409 -0.031836226275697709909 -0.29966349795472491113 0.27575509256917135614 -0.040020543161155421041 0.38778092976782529977 -0.25763677355594605256 -0.11969459955804963303 0.29400018436687541667 0.58956412115426071185 -0.30693909591593171449 -0.030518167263127383287 0.44954221328354387888;-0.028271333969718960566 -0.049262759170715667012 0.045426223311037350339 0.049941634879833031457 0.043166240534478379776 0.16699107481868630254 -0.1705010917730514497 -0.050528595202362532046 0.18735042364771362089 0.21480737254911000389 0.077914427116847109756 -0.16234231483099922921 -0.0066168778966420923465 0.021453785259010472314 -0.2902246720581171946;-0.28619512011674225205 -0.40726164354834465398 0.58121601781932019648 -0.061292209796328087079 0.29129723345025021475 -0.29866600080177146959 -0.23900277629699645532 0.022530076369617690196 -0.11925078058127866476 0.39891097402301967101 0.0065141485155004730245 0.30424856969238833759 0.16705100195123007145 0.028924881245423555987 0.35163230899562963883;-0.42286145323642393423 -0.52990706233329598618 0.57425491589266930426 -0.27497756747081070205 0.48324927770715508935 -0.4061784110726614494 -0.62916164558722864619 0.064884253834268490468 0.32135463471090097709 0.98749569369760703541 -0.245308562386120671 0.10910999930167691874 0.70406840467015197049 -0.16560374448504516787 -0.83415925008905633664;0.025669737038176473898 -0.010621994949622647064 0.050423161420777261321 0.037255506067030590145 -0.050058647059588325112 -0.11177213524249045296 0.31256083383303806533 -0.18480760443007410165 -0.55474050568852206755 -0.21308837088836424245 -0.43034006071377112201 0.1808874759743619165 0.1241116726189896019 0.12292181029774854051 0.44158745371219754183;-0.015794550567593452356 -0.059870911175578904462 -0.051306751274841619348 -0.024430608926571159567 -0.013201561225204968067 -0.1469760918122833826 0.32094018328566847886 -0.16857631270451997607 -0.53805890770524567035 -0.30077917145837668178 -0.4263029915852181162 0.25607195936388482682 0.18401838564871431103 0.082863184866964603725 0.61294489845402977402;0.019270137243697561813 0.0081712183894912318594 0.001656422601426147008 0.021372469747166500387 -0.03627042289676708775 -0.0053493009913014909554 0.19447174378035256281 -0.32224749069447283789 -0.30589240613858253992 -0.044934001936873510519 -0.34311936681348714773 -0.042881697841997287735 0.059947467800950775263 0.034942617509522766461 0.10733243766224288829;0.017831530341752045016 0.0042615403900347122862 0.088557764227878907337 0.0076273333027666971595 -0.035630170979835611156 -0.12053891901320117064 0.15973090405323453478 0.072771237251888998276 -0.22364877095827129239 -0.18677381671951068243 -0.11590577400477425352 0.13895826755511211936 0.082693890600358657683 0.068911673178594881617 0.28457395024927761851;-0.25496396811609361999 -0.14580251452650822008 1.6826576893303850646 -0.31922648706674394692 0.30791074627314346523 -1.1324178433383136344 -0.64626325159255482156 -0.64379909750798880452 0.66173838839845944282 0.7779423883323417499 -1.0178215858288643947 -1.5116238281066827209 -0.53474929009094185339 -0.85718294559742924665 -3.4727196475708321799;-0.26083471353183296237 -0.29547722820606081573 0.22655394840444625926 -0.27687318138607214246 0.32353698416249870862 -0.30006426458407259306 -2.0565559492422704757 3.050391769165000877 0.63228306588301896873 1.5624696987865023257 0.1042685394628237866 1.4917901210886495011 -0.19509426760450157556 -0.30640726775112187008 -0.65131145605395879272];

% Layer 7
b7 = [1.1876244013091290519;0.70258771038653566876];
LW7_6 = [-0.77568478048529720947 -0.33318677870795088136 -0.52624046705879135022 0.056655118686141328621 1.8345904814097113711 -0.95973589192058106345 0.50656855238382714202 -0.69712073653415829178 0.64291906737137849426 -0.85513996024649574501 -1.0515113007878120754 -0.41626286675936130521 -0.52773732354936198075 3.402333955548400013 0.28882552730348504122;0.052627711720450567889 0.47327306968268256782 -0.001067827615758224066 0.57156836781231856737 0.38850468537773885647 -0.82215675761485096373 0.32373619734491237976 0.84699869567636876244 1.8631987622777379521 0.071023692399863322389 -0.12156204477691620602 0.11695541850336696466 -0.11843385746179103946 0.080424478350139064209 -2.2174245122964078014];

% Output 1
y1_step1.ymin = -1;
y1_step1.gain = [3.03030303030303;3.16243615743131];
y1_step1.xoffset = [0.03;3.16978638492222e-05];

% ===== SIMULATION ========

% Format Input Arguments
isCellX = iscell(X);
if ~isCellX
  X = {X};
end

% Dimensions
TS = size(X,2); % timesteps
if ~isempty(X)
  Q = size(X{1},2); % samples/series
else
  Q = 0;
end

% Allocate Outputs
Y = cell(1,TS);

% Time loop
for ts=1:TS

    % Input 1
    Xp1 = mapminmax_apply(X{1,ts},x1_step1);
    
    % Layer 1
    a1 = tansig_apply(repmat(b1,1,Q) + IW1_1*Xp1);
    
    % Layer 2
    a2 = tansig_apply(repmat(b2,1,Q) + LW2_1*a1);
    
    % Layer 3
    a3 = tansig_apply(repmat(b3,1,Q) + LW3_2*a2);
    
    % Layer 4
    a4 = tansig_apply(repmat(b4,1,Q) + LW4_3*a3);
    
    % Layer 5
    a5 = tansig_apply(repmat(b5,1,Q) + LW5_4*a4);
    
    % Layer 6
    a6 = tansig_apply(repmat(b6,1,Q) + LW6_5*a5);
    
    % Layer 7
    a7 = repmat(b7,1,Q) + LW7_6*a6;
    
    % Output 1
    Y{1,ts} = mapminmax_reverse(a7,y1_step1);
end

% Final Delay States
Xf = cell(1,0);
Af = cell(7,0);

% Format Output Arguments
if ~isCellX
  Y = cell2mat(Y);
end
Y(2, :) = Y(2, :) * 50;
end

% ===== MODULE FUNCTIONS ========

% Map Minimum and Maximum Input Processing Function
function y = mapminmax_apply(x,settings)
  y = bsxfun(@minus,x,settings.xoffset);
  y = bsxfun(@times,y,settings.gain);
  y = bsxfun(@plus,y,settings.ymin);
end

% Sigmoid Symmetric Transfer Function
function a = tansig_apply(n,~)
  a = 2 ./ (1 + exp(-2*n)) - 1;
end

% Map Minimum and Maximum Output Reverse-Processing Function
function x = mapminmax_reverse(y,settings)
  x = bsxfun(@minus,y,settings.ymin);
  x = bsxfun(@rdivide,x,settings.gain);
  x = bsxfun(@plus,x,settings.xoffset);
end
