function [Y,Xf,Af] = DCS_10(X,~,~)
%DCS_10 neural network simulation function.
%
% Auto-generated by MATLAB, 05-May-2019 22:00:28.
% 
% [Y] = DCS_10(X,~,~) takes these arguments:
% 
%   X = 1xTS cell, 1 inputs over TS timesteps
%   Each X{1,ts} = 35xQ matrix, input #1 at timestep ts.
% 
% and returns:
%   Y = 1xTS cell of 1 outputs over TS timesteps.
%   Each Y{1,ts} = 2xQ matrix, output #1 at timestep ts.
% 
% where Q is number of samples (or series) and TS is the number of timesteps.

%#ok<*RPMT0>

% ===== NEURAL NETWORK CONSTANTS =====

% Input 1
x1_step1.xoffset = [0.00120069098611025;0.000156281659952181;0.00236488767656627;0.00408479137007364;0.00172854682036548;0.000692772453801206;0.000154225323335098;2.83566362626678e-05;1.98977292319642e-06;1.64962732715356e-07;2.16594100015891e-09;4.17580790495951e-11;5.20410107169224e-14;1.53934576923816e-16;7.32800886761281e-21;1.4212908184457e-24;7.2704701242177e-31;3.20699077329469e-36;2.81332875646869e-45;6.00234783910807e-53;7.20150431109371e-66;8.55103806117184e-77;3.67303344871515e-95;1.14189339148783e-110;1.03596614563876e-136;1.110265906948e-158;1.49325633891594e-195;1.20704425216603e-226;8.21599881707689e-279;8.39911597930119e-323;0;0;0;0;0];
x1_step1.gain = [0.861413255979987;0.873751811991784;1.17801260377571;1.01765035790009;1.76862455094299;1.44207539535679;2.12894052434875;2.32112451613541;2.51701128162497;2.59461443353934;2.73291984572043;2.74906110722532;2.85318207694202;2.87272793383904;2.89662515341839;2.87866587554762;2.92642608915986;2.9299710633518;2.95828620904839;2.97799100160645;3.01848868941437;3.05934378796256;3.14293622042118;3.22855256613483;3.4060441517628;3.59306460865551;3.99584585693811;4.44055081268169;5.47230056057891;6.72517527872576;10.0780581341537;14.9557313009112;32.0716242303912;66.6315365760715;265.323099633146];
x1_step1.ymin = -1;

% Layer 1
b1 = [-0.48957798188045531518;-1.9938671638909302164;0.1052415564034370199;-0.54538020056195868346;-0.78764682907619509855;0.026367161792317076602;0.97502827951885595592;0.29979328656430376254;-0.013392665581726250282;-0.04616616722598947814];
IW1_1 = [0.29484388435093944469 0.15264856207717758529 0.29164545090184479381 0.16226199766604371133 0.62393531411394420605 0.15778749915814335725 0.4012439404772489282 0.17892358607336092402 -0.018359649005591078402 -0.049515129899593689211 -0.23008256739838581217 -0.21293143912404302598 -0.17249253459947611056 -0.14693945572413774636 -0.071757842467026239364 -0.03985901014210061627 -0.030736350731656928575 -0.016994461432547122021 -0.013070820419588754721 -0.0073222724639859168572 -0.0036725552206933647151 -0.0043632049128255112266 -0.0028574399013714642595 -0.002360054929872984486 0.00030369886362906049629 0.004192966199254685028 0.021232352650043279096 0.037809511325564898465 0.070390575588828108167 0.10034536214192167625 0.15334129785488898046 0.19695787743998288688 0.25983000868925137938 0.30303521623356405312 0.35456704055821713917;-0.023092515626560897873 0.024496345975841625486 -0.0053149313584534762719 0.044267788982523911812 0.0077603309321591157008 -0.076400133039456419315 0.51329807524580794986 0.40472533718203040909 -0.31006978185148376115 -2.1054961575198194446 -1.9914347534406520168 -1.8348677210869674958 -1.3655150630697507896 -0.71224205028317300048 -0.15025148865075230176 0.050149566145900791037 0.13903923914186150368 0.16312699613717526748 0.18393352225361345176 0.19082907360559481225 0.20747341685665438016 0.21861964545501746948 0.23292754417403729872 0.23870741398269024192 0.24530679932403878785 0.24781112630040677547 0.25352507687323255769 0.25970512487860825113 0.2796633061523988717 0.30023778691572711175 0.34688141628856966614 0.39375745447668836219 0.47038581267152318466 0.5314008539416755772 0.61599345641542913032;-0.0053884862345355902247 -0.011817544761038021803 -0.053443107318104712822 -0.084198126434465433987 -0.044174199823994925174 0.062622544153234191433 -0.25731931301239002741 -0.014961109300237394187 -0.16191371229696829848 -0.026663251982722860345 -0.29965547317622576173 -0.21431768827343539163 -0.31798042089342704042 0.025282099130388240721 0.21500198590611216409 0.26586829866588812532 0.18207995410712643491 0.20835415973895918262 0.22541682543535945804 0.1821953452948751051 -0.055927028606440075398 -0.17852807752563620847 -0.15523064446576606557 -0.10500429528000498891 -0.0076274556536483541919 0.0369635233115184203 0.060568897346325187292 0.040980626772398262569 0.0069500667671123896388 -0.009561206130321003166 -0.013897031365336712933 -0.0050366697942411829333 0.025928690233009005217 0.053024225104565447797 0.067261548239883853229;-0.054334855410809762555 0.05879153238985124208 -0.0052129830744577750415 0.0075514087827319971782 -0.10820983059555788763 -0.1367097051035137123 -0.26445609235860534358 -0.49399505622437667185 -0.96341671081723012637 -3.0199110387561205471 0.5606172380368851238 1.8650613133443150193 1.0172637219032920619 0.73242241041704636562 0.50200107163461360482 0.381975588670468158 0.14701776272320468686 -0.097431145874389404882 -0.28373612803994036069 -0.25953557577009778168 -0.11330216070011504825 0.030875034034885406181 0.1279338344132847638 0.13728012632829317274 0.11126615646964746476 0.077793798271972539049 0.041360330014029847434 0.0088543275913011802725 -0.037774481605307524967 -0.060010142072556720005 -0.081495544977411210619 -0.10049151065946301808 -0.12944621940961625883 -0.13149404564074487767 -0.067008860034367165315;0.037284066184852339421 0.095295448445232994183 -0.053290143859076113952 -0.042063997429974603337 0.051629675006419566141 0.00044655321517052596041 0.028279386953575704616 0.62343358178418306625 0.10243318437808766885 -1.35960058102495851 -0.41551575573587279377 -0.40621859863229858867 -1.2332336509256780488 -1.2859486215868982661 -0.70068504451141078171 -0.31620931515944239454 -0.032605323141549881483 0.076511638220433553226 0.16633288108257429649 0.20285136335370618221 0.2254867318293014844 0.22478446549362435247 0.21222088429292379486 0.2002269702246862737 0.19104719993391278132 0.18889336999791611627 0.19736739676808914834 0.21178523530212287063 0.24390453812124573973 0.27068561800701140818 0.30340392663912935101 0.31805941489219319296 0.3230971644210050564 0.3190778391038275319 0.30756629394371337582;0.015411317037529313756 -0.031192949783536521452 0.019513380612338274145 0.09305056329752810218 0.1147620107016024682 -0.0026531903113134525964 0.75080723759147927066 0.54462372753035603878 0.54085932290624483265 1.3398341905952251274 -0.35968165901524223882 -1.139966251747493553 -2.0830980405334229566 -1.2619648767250859489 -0.3023133672314494147 0.28443575704849644037 0.71902286074349897049 0.54177502471268801365 0.18238591402351941873 0.0089762429724556929561 -0.11188011382882735723 -0.064879274430753572367 -0.054673419225187973314 -0.06111491988806197484 -0.076930588496287491407 -0.088308963182741492814 -0.071529825963244406117 -0.058354306398738502171 -0.017506077848569522037 0.036160680179194409911 0.11657828733122742315 0.13788839870466668147 0.095809666888100761262 0.047432735072833479006 0.048224106700472522957;-0.0081600759037853583255 -0.048162872036169368517 0.033590577668419212276 0.0078973249943460749334 -0.028455600652067588457 0.021273734956504204707 -0.22414697053617502198 -0.46922271707611523661 0.085388028071689603404 1.3348773754064946484 1.439235806285358743 1.2327320195986437579 -1.144252024006535251 -1.4508758310854923401 -0.97324120830377236491 -0.2005761410742227524 0.48950630191910254885 0.82605297708169789228 0.86925098503512709947 0.62115512713174148018 0.17675667886568546816 -0.084615191943783640838 -0.24946541910579075885 -0.26739963252317500153 -0.21549577935677380336 -0.14843845859191462377 -0.049514110886058636252 0.014632850918413113986 0.064398734230185467053 0.059409868089582110184 -0.0038621772110050129993 -0.072427175517659314607 -0.17808220226833984534 -0.24993163791715949928 -0.35788828612145529018;-0.016554227503286667034 0.044884737494037742211 0.0099167785155201988029 -0.024476131788888477042 -0.10078682709597984457 -0.061906554077708161876 -1.0853359232452728378 -1.247065514172801759 -0.28755986457276278001 0.83356744637917501439 -0.079273377473613154676 0.046916529311829088811 0.5393868241025615573 1.0592366881429493564 1.2515804319448888826 0.96594562684278206799 0.51870484333922250997 0.0081924110307845139645 -0.43370503436342494608 -0.47490794712513151321 -0.28759484680006824897 -0.071111085362805678822 0.082200401463560252013 0.11670435817561639058 0.093203206602755842014 0.045042553651166758466 -0.034322276828205260102 -0.092228772044323739654 -0.15099575339790669015 -0.16932701855908849353 -0.17345095940911645083 -0.18437996182918703347 -0.22352766243995444984 -0.24809741050076666857 -0.23008939619953974742;0.44218518184702204632 -0.75039726017763563881 0.27376838367485289982 0.0093543566159206732735 0.77320440511360388758 1.3150321131276376807 0.26740796220810780781 0.54809325049035306776 0.25963627582197179589 -0.35440436927943697043 -0.018535425672334734232 -0.070539539400141598735 -0.082150997023216196236 -0.15319183835825198048 -0.1503794267184812572 -0.24491389686433287509 -0.34521554981968916032 -0.39636681293025138872 -0.40239742084725038662 -0.35096302935457862615 -0.24565850488210466684 -0.16399930783048985439 -0.074340745624410634051 -0.026291065775214898098 0.013609304572579165524 0.026541582198593413611 0.026143167941933408149 0.019063072185857215385 0.0073521830724951938579 -0.0032974865107373353169 -0.016896639842242027613 -0.024359405225299918252 -0.026761503334863902953 -0.021006004311392729306 -0.0028713795508277886216;-0.0105542346722471269 -0.016119941334794656018 -0.06010274356270418894 -0.084146037792974665015 -0.047041155394156132508 0.058118406320967958001 -0.20955086593040425647 0.035159734298504614902 -0.14464948285477019496 0.046247939876899145373 -0.32416739981316006203 -0.30230469382541180767 -0.41570553116650588166 0.043489008009957190459 0.61897437834046087346 0.64233089006114751918 0.60882061205892124001 0.35108858509116258606 -0.038521499852048460277 -0.21222626354844401075 -0.18419951162759093388 -0.11070091681359375824 -0.065664684303531450915 -0.027409125155817250924 -0.011051528012228351711 -0.00068210041450453707656 0.0060657688470350783899 0.022514328840194157422 0.030014939091723754488 0.021950249247354319121 0.003024905456472106683 0.00011711766806394904709 0.014688485921450248825 0.037287504203139566761 0.10056112656716283127];

% Layer 2
b2 = [0.035510642309210027623;-0.36050341595800006189;-0.16301048392842723556;-0.25650827500845746476;0.29174296720912562542;-0.63337497516312957213;0.50916340609614751944;0.32936827723579026328;0.23580557767160031934;-0.077575231090605115125];
LW2_1 = [-0.097593834974779580804 1.4190123584368274923 0.52691749843395441211 0.43425885441512623864 0.070345035519237361643 0.30073072744552176161 -0.096284630515431471331 0.61553737090809168553 -0.025907393687724482312 -0.21096988558271723146;0.11412159045635275612 2.1548409704656319441 0.35921593201060331157 0.3289132344172192024 0.46769917794891091578 -0.044987152464241175753 0.73770746735418724072 0.97269828689181225823 0.15771041136766972279 0.48709299664192062806;0.1980640137457160832 -2.220631455838360413 -0.019869691907333720399 -2.270249190055091848 -1.0817887631970390938 -1.4289630825257004787 1.2734248077311938196 1.4087767672746041026 -0.21001519737310847535 0.047960582779036302348;0.050724617040105363097 -0.86031548615936170865 -0.5837787606299562615 -0.28547797099991673031 0.74376364275521333891 -0.78341238860711492897 -1.0599017763143423476 -0.31094698883624433128 -0.0078121794374608416814 -0.93437655742322256458;-0.11223246265059431959 -2.959236886967679947 -0.46793855435811348986 2.8720025636859611851 -0.22980907230584318723 -1.3503583299862185196 -0.1023265107831953652 -0.36701214275318821967 0.19590169999490233965 0.46529315004199295336;0.15458910954401808291 4.2551985922680026775 0.91970840744639126285 1.2839799345489892879 -0.75195194724546543519 -3.1401756794714432708 -2.1576595618514211594 1.8587574103796309366 0.48694576502147812747 -0.50060453255502046499;-0.40729100349429692152 -0.075153202209394240341 0.13026979682888248369 0.69833731578700219966 -0.66160264993803064026 -1.1089053138575666324 0.61356410245042913854 -0.3797100928580267043 0.027221707187575664572 -0.24096358832120751137;0.066414054782066647697 0.13487485697514139948 -0.24735300710148405701 -0.44535930603539219952 1.099527297939776771 -0.59130414533725061954 2.2078414322426795913 -0.31384597664847585508 0.0057865682750297964265 0.016278335658184570761;-0.20030204421478356447 -0.57868735430178397383 -0.81464792314621070624 -0.16818771318846970075 -0.21439579826315185995 0.14842967078148563975 -0.22836591318634169578 -0.95233198351335601739 -0.35956035467017039009 0.065168572927801801664;-0.18271115865180692639 -0.35427955542995104299 0.48691498349139178403 -0.20420638318337361317 0.50501799187318363593 -0.05658328274550247089 0.49869094501149752174 -0.59553912573832545885 -0.24123198213517443866 -1.1341873013516057256];

% Layer 3
b3 = [0.17817975884313044799;0.095194443675165107965;0.12513943382645989488;0.58986255099491824438;0.46135088860255102361;0.44767441854902456644;-0.14836379918061379235;-0.27725317397835791411;0.1389112258051598825;-0.19993742278628789943];
LW3_2 = [-0.60372492121413834365 -1.3275994014299472568 0.11881719211076954834 1.5841356467599583269 3.1460778412981582619 -3.5735779138217043105 1.5175429375650881791 -2.1175278944454563046 -0.23899724816856179888 0.71940827611300639521;-1.1539483097692371238 -1.1571260950355113373 1.9669037713150976376 0.10053736717166655845 -1.8010234000333489313 -1.1253052582253442182 -0.20520176445617949179 1.3757075924356416685 0.90332850119647711828 0.30659077365622372513;0.49623386912532196913 0.64153242127278498064 0.71172170279492874556 0.20515029840707635356 -0.70186228255640881191 2.7307633701627112011 -0.022924160792703981299 0.25935444005166408132 -0.47509398620843651395 0.13194516028389971507;-0.27088612750183932443 -1.0753336125523251798 0.28267033440118016774 -0.17196353661353308562 0.62135065956884882876 -0.2630922722649964296 -0.2184837978283556692 -1.6661060392836826161 0.15237806980905813092 -0.41769782652217557484;0.041905425950984023786 -0.097960495766263477879 0.49187485112623507977 0.40430583209232928699 -0.64099854576038362008 -0.30568932121701902771 0.39584379760525595371 0.24528329887206001825 0.7372389871413274065 -1.023708125401115332;0.33069338346787530147 0.85774484528615257961 -0.53726646191683635756 0.36835774128627135626 -0.95748509022561567594 1.9044670991658478876 -0.5053023125050398745 -0.39072173335426718666 -0.99791968134444875016 -0.27144362533103916224;-0.12624200007754210473 0.18778189538949960347 -0.53950841841540631005 -0.085771586927357229557 -0.52950071931214226506 -1.433314625691237687 -1.0247545434876923487 -0.47125178462515410205 -0.27664728531051724358 0.91056007520707027414;-0.69595910252713799604 -1.0993905955419294163 1.7007979305156746275 -0.27471413105225506168 -0.74629662747496861019 -2.0718021503892436463 0.17843705119614935994 0.25269775273971073482 0.82026586153462988094 0.23439969704346505508;-0.20478771837979800607 -0.37039823058025939106 -0.76168207704002055536 0.84819607796433194036 0.37305866269577619976 -0.054096806644194223024 -0.13561206686646143371 0.28536566357181419873 0.27705251940168706959 0.34630640080157348848;-0.17731606695256224571 -0.14422184907950799659 0.37269963169495934352 0.09042028556702667863 0.80323705533441980275 -0.47408282500305387597 0.36143786393818350122 0.30332229958831408156 0.3971276742642124713 -0.016859217034451569328];

% Layer 4
b4 = [-0.014022896997704077313;0.10128462467663913726;0.68148193264967982241;0.12182992544747313357;-0.11079360679981299642;0.0056610294031135587403;-0.10130472794788135393;0.093228241117714313879;-0.10284033519231181031;0.06275523730056054017];
LW4_3 = [0.098974795374041094065 0.15425200167426614262 -0.0047087498076231011288 0.14754924638365826683 0.06083555715440639583 -0.29031474538166118782 -0.1459715191406309176 0.1134532028822406724 -0.0021224427911591377607 0.088533876607433323325;-0.26464825975292893823 0.38837540090040806318 0.24567029204181595192 -0.18367972327813378297 0.17408910762065585298 -0.49075892354600114675 -0.53210540904056380374 0.15119069936417939282 -0.21897650391815196014 -0.13467771944398559958;-3.4355006771410341315 2.1184478737802239223 1.1156868981163745591 -1.4338484748250732714 1.3416964158866002688 -0.83313144020691010105 -0.65119351597935448694 0.74112107282926742435 0.0079403223299038556277 0.73203944297399758945;-0.53548444474800305226 0.25915125967835345167 0.28876220508208738647 -0.4084214136353004343 0.34927279414595108209 -0.28899038649348024466 0.0046912234209893367148 -0.090982121440905283638 -0.0084924136274567799815 -0.041471163450713083298;-2.2212695096332799594 0.35975921605712174456 0.9835932513025315016 -0.27307933415548552025 0.52197588501804870198 1.1691732243448946793 0.28190644113946022875 0.45398188483065099463 -1.0805484334097812393 -0.44218492140170234661;-0.35280125164672848648 -0.75401111961933875438 0.32211462244461486204 0.22161603647848826526 -0.051593019468395895366 0.51039344816832199481 -0.047809343593056385924 -0.69422222032259506275 -0.15595407090868440569 -0.062388857820391128983;-0.58118318533550783478 1.4035612096660072812 0.039503443650838729329 0.28651631784858061502 0.30103783887595308988 -0.84427374709383484763 0.10124169702885398026 0.999166718119720354 -0.18995100227320055319 0.28355160296449793966;1.7102829360890823285 2.5785695418658365341 -1.6470108670632574999 0.23210070636125906818 0.77651370301875255464 -2.3209060428810395216 0.57783041418881331275 2.5574149448461067635 -0.1710533906433340523 0.40406982413584818792;-1.4090222279352786483 -1.7638099686787733766 0.38997395165229270519 -0.17406609894155547491 -0.20755796859163339052 1.8202830605962978527 0.39584449930269127726 -1.4685667932094130794 0.23751833997265048293 -0.41823713402480311441;-1.7986688002424462418 1.034837258774384372 0.6662612302006379883 -0.66858529629263019345 0.28764193144265620683 0.20802697291094454646 0.60956719190163421995 0.23349203222794076562 -0.46926398907863314802 -0.12511277532302514381];

% Layer 5
b5 = [-0.14826617693455432234;0.17498948003844522203;0.06278741494490833186;0.11618345297351799494;-0.13176766553787627734;0.010982448971914785321;-0.31080666815661811553;0.17405470865324634833;-0.1261174879093674428;-0.4489359982297939089];
LW5_4 = [0.001780369503718274302 0.07472698213502304565 0.063847834655099106049 0.025836895116474002665 0.1441714464615417024 0.12802355174712790054 -0.15710530979276171593 -0.34842171725706921892 0.061252673009102455437 0.039342999081209965861;-0.018165687935131957786 -0.080227350220119578172 -0.041836264460976109458 -0.019353191208244292093 -0.075039155115181097044 -0.11536967411303844511 0.14388382143038927485 0.3294075347722802416 -0.098130589719312683039 0.0098749927818534005697;0.31822368413150509125 0.055861576241571772594 -1.6043610010215940687 -0.28947027509475237173 0.091299510508791925645 -0.17831478512459986163 0.04575514543962673486 -0.35115820737513869787 0.18873926411177605056 -0.54778296357386302429;0.015814487875584835874 -0.082200641068233326614 -0.043147007158399280913 -0.08630972091871295937 -0.072010364073074775715 -0.20850641224704563603 0.30672448614775504883 0.85917923704986554068 -0.39462617415517303732 -0.022491548266283897806;-0.36478786062003493162 -0.59789625138457547227 -0.28056636531866641082 -0.10907930595803315421 1.5850813165861472598 1.08506012630152604 -1.3783172525197164848 -4.4431035373729015348 3.131403472771748131 0.59285111938122214692;-0.094783474446003310177 -0.15989835381970191053 -0.52034840151450834078 -0.079743834354725776081 0.30434233170572305704 0.39288110922207236664 -0.38538959512235648752 -0.55780414347994800028 0.5691502674473396528 0.11460006656810334258;0.00039008825973166490978 -0.55170268096411778647 -4.3413604001294263668 -0.6886674343485330585 -2.5577244562198324651 0.1712855647518254365 -1.4113059380039771895 1.0076387087155904698 -0.43831361920888334271 -2.0681026744562420738;0.024562453358337912879 -0.11199208084418453557 0.59111390436829824857 -0.10178828457097088833 0.25264778422709827099 -0.48034539143982929454 0.6244659574716849848 0.35607613585832548209 -0.26383638909539458561 0.53833296560512344797;0.08320194518761279967 -0.080536635860643204787 -0.26615111922236278641 -0.10380208945600717663 -0.28113133340294038653 -0.18551249845250525339 0.21727116766676937698 0.42922347656977005714 0.11940978795987906846 -0.12385182996872876049;-0.00048351542949772645472 0.37890803025384611757 0.25519737620623805796 0.48192893772130002139 -0.55589059584589206597 0.17188572728256359956 -0.38108954482352852544 -0.46137117687410195144 -0.018622095102457009858 -0.69452534225908046928];

% Layer 6
b6 = [-0.31034667604221249926;0.12494971136486598962;0.32055245646321472996;0.85554927886632203826;0.3563009708225275407;0.24795813765256935479;0.78174414822831728156;0.57050973227375489927;-0.1459596044392709735;-0.13386295664819114482];
LW6_5 = [0.0011520512497941259953 -0.038076546356862459031 -0.56685146702072053415 -0.15569943997312349349 -0.20517049594806030521 -0.18707212536092449051 -0.94589665558270763501 -0.14262918002675212259 0.17082624699249773781 0.084753557227149597941;0.08988243004455449825 -0.062110543413611281338 -0.13393751938008638391 -0.22128286479947387178 0.27890052157988776127 -0.012288713855276835185 -0.310493001434750171 -0.065482347203191834661 -0.200309316002212634 -0.40288861497275368917;0.14940057135581713554 -0.11113238534139384395 0.53386382025805823037 -0.55597639541728338664 3.7728863344320719975 0.39904883447356176429 -0.75818408714920415559 -0.33915038752388415588 -0.38055545909449861597 -0.28697415843752926978;-0.19321552660854768302 0.17974846281242726209 -0.52830750898622302891 0.32198606999421280905 -1.7862038464391671866 -0.099393187854178041696 0.025847371240954382376 0.28588704267114994906 0.16163857698891145875 -0.04819153653669830395;-0.26681566649075305619 0.19447287546437475036 -0.31855202636888346746 0.07986231254894148035 -0.028082364777935645006 -0.39311988540980025153 -0.64739272294142324871 -0.45579839352771972516 0.39047157489958000953 0.56215896016717314954;-0.002506689271614934416 0.023270832459274137793 0.036617308719798041805 -0.076913162787733066472 0.30627331615301534029 -0.12643457379978398358 -0.0025413524399896369327 0.13846393861740446951 -0.085274639207494506987 -0.52788705591581253085;-0.39672731601642330368 0.39502679437507376425 -0.44733391651139403633 0.52685465881091353424 -0.88048517610710708148 -0.36294512461157868444 -2.2637276920010687142 1.0519942280391327838 0.3657541561591697854 -0.53874691646399675005;-0.041894699530162143875 0.061366070864014382602 -1.6241812123917316324 0.042058827789465798308 2.2997662104214815493 -0.84770668735022147722 -4.8057506425115299464 0.76035254538297847304 -0.16057825422382596137 0.018320034097791981775;-0.13978842422682249969 0.10621414115944553813 0.19032449922256086672 0.38376695529368715087 -0.38300169067256062405 0.013080700666695772166 0.63176758760564333262 0.17561314864464511176 0.29837597457595310679 0.51469740811510689138;-0.10686554694804487053 0.080286925842504380801 0.15727794325394706121 0.27438474028261089499 -0.31903421029543599374 0.0062539874690756567036 0.42433868282358377932 0.11533985848093135373 0.23131594270235128485 0.43213283644773986536];

% Layer 7
b7 = [1.4042279032725328847;0.83133994785378462211];
LW7_6 = [1.1991500987047993831 -0.24309013673388277232 0.43258848852748033043 1.3564809703617060066 1.271879047958679898 -0.01902717830063175436 0.45202189786376573144 3.2675978277102601943 0.18619275537165860812 0.19739880465401013487;-0.42197932924238101826 0.51073948184960793473 2.0988613824888009418 -0.89186767513379872074 0.22144456414938556987 0.71259555564150345308 2.631113706088558768 0.2746641497696083456 -0.77919564148462017172 -0.57896703556938955426];

% Output 1
y1_step1.ymin = -1;
y1_step1.gain = [3.03030303030303;3.16243615743131];
y1_step1.xoffset = [0.03;3.16978638492222e-05];

% ===== SIMULATION ========

% Format Input Arguments
isCellX = iscell(X);
if ~isCellX
  X = {X};
end

% Dimensions
TS = size(X,2); % timesteps
if ~isempty(X)
  Q = size(X{1},2); % samples/series
else
  Q = 0;
end

% Allocate Outputs
Y = cell(1,TS);

% Time loop
for ts=1:TS

    % Input 1
    Xp1 = mapminmax_apply(X{1,ts},x1_step1);
    
    % Layer 1
    a1 = tansig_apply(repmat(b1,1,Q) + IW1_1*Xp1);
    
    % Layer 2
    a2 = tansig_apply(repmat(b2,1,Q) + LW2_1*a1);
    
    % Layer 3
    a3 = tansig_apply(repmat(b3,1,Q) + LW3_2*a2);
    
    % Layer 4
    a4 = tansig_apply(repmat(b4,1,Q) + LW4_3*a3);
    
    % Layer 5
    a5 = tansig_apply(repmat(b5,1,Q) + LW5_4*a4);
    
    % Layer 6
    a6 = tansig_apply(repmat(b6,1,Q) + LW6_5*a5);
    
    % Layer 7
    a7 = repmat(b7,1,Q) + LW7_6*a6;
    
    % Output 1
    Y{1,ts} = mapminmax_reverse(a7,y1_step1);
end

% Final Delay States
Xf = cell(1,0);
Af = cell(7,0);

% Format Output Arguments
if ~isCellX
  Y = cell2mat(Y);
end
Y(2, :) = Y(2, :) * 50;
end

% ===== MODULE FUNCTIONS ========

% Map Minimum and Maximum Input Processing Function
function y = mapminmax_apply(x,settings)
  y = bsxfun(@minus,x,settings.xoffset);
  y = bsxfun(@times,y,settings.gain);
  y = bsxfun(@plus,y,settings.ymin);
end

% Sigmoid Symmetric Transfer Function
function a = tansig_apply(n,~)
  a = 2 ./ (1 + exp(-2*n)) - 1;
end

% Map Minimum and Maximum Output Reverse-Processing Function
function x = mapminmax_reverse(y,settings)
  x = bsxfun(@minus,y,settings.ymin);
  x = bsxfun(@rdivide,x,settings.gain);
  x = bsxfun(@plus,x,settings.xoffset);
end
